34 128
34 -0.196504 -0.097751 -0.180571 0.153516 -0.106986 -0.005469 0.155018 0.038241 -0.004022 -0.105597 -0.092874 -0.094591 -0.101884 0.078175 -0.056358 -0.166965 0.171838 -0.098762 0.044941 0.073620 -0.054018 0.051448 -0.223699 -0.045816 -0.016200 -0.211087 -0.112119 -0.070087 -0.132286 0.012546 0.138690 -0.122798 0.035346 -0.217326 -0.166296 -0.067062 -0.033284 0.034773 0.126934 -0.128855 -0.122719 0.131420 -0.019336 -0.016169 0.125682 0.232130 -0.058025 0.048590 0.039102 -0.051359 -0.182045 0.008528 -0.179142 0.213101 -0.216324 0.097664 -0.052338 0.194663 -0.172983 0.148457 0.152908 0.071356 -0.009099 0.223723 0.020627 0.039669 0.183599 -0.129561 -0.011100 0.152972 0.086650 0.243149 -0.167296 -0.009672 0.200231 0.070179 -0.092046 0.240039 0.200902 0.079382 0.055977 -0.131704 0.043822 0.136195 0.106191 -0.138173 -0.193204 -0.089962 -0.174328 -0.068299 0.018867 0.067668 -0.079643 -0.093643 -0.053561 -0.006360 0.039887 -0.027311 0.070413 -0.100456 0.126289 0.124217 0.163665 -0.001080 0.007370 -0.164533 0.288921 -0.104628 0.143797 -0.071580 0.108294 0.003822 -0.017757 -0.006504 -0.035774 -0.170713 0.054974 -0.149036 -0.095855 0.136786 -0.005648 -0.056862 -0.092324 0.029827 0.042484 0.034646 0.188233 -0.028964
1 -0.082126 0.013318 -0.199834 0.193514 0.006441 0.006226 0.149803 0.037914 0.021579 -0.086524 -0.049568 -0.092223 -0.090730 0.095968 -0.030062 -0.185264 0.150581 -0.160710 -0.060473 0.102572 0.059484 0.174920 -0.129750 -0.016416 0.126682 -0.144867 0.059427 -0.037178 -0.058279 -0.052430 0.195986 -0.048575 0.080645 0.029277 -0.060960 0.018862 -0.059247 0.014849 0.041015 -0.098328 -0.034029 0.061260 -0.017924 -0.014930 0.013496 0.152299 -0.063838 0.098451 0.015379 0.051950 -0.131782 -0.061962 0.045774 0.025645 -0.145372 0.148745 -0.031026 0.214667 -0.012820 -0.057158 0.258876 0.118710 0.010633 0.094024 -0.039706 0.096682 0.110444 -0.075830 -0.055896 -0.159345 -0.019914 0.292420 -0.161633 0.045031 -0.021623 -0.032362 0.003385 0.109778 0.107381 0.236678 0.056592 -0.010670 0.105198 0.041509 0.090888 -0.215137 -0.211797 0.084719 -0.041865 0.054069 0.090439 -0.049739 -0.083027 -0.018589 -0.144819 -0.040557 -0.006122 -0.066141 0.045209 -0.041992 0.191454 0.116966 0.082146 -0.245118 -0.093342 -0.033940 0.093136 -0.046116 -0.021634 -0.060162 0.000588 -0.012615 0.091216 0.021955 0.029457 0.013901 0.137484 -0.268011 -0.184571 0.081307 -0.002874 0.016194 -0.027175 0.068444 -0.057380 0.058713 0.145244 -0.094255
33 -0.189498 -0.078631 -0.188559 0.166584 -0.088884 -0.005583 0.156290 0.038289 -0.002006 -0.105312 -0.093663 -0.097825 -0.107758 0.085188 -0.053538 -0.181363 0.182199 -0.111636 0.030351 0.082033 -0.043553 0.069432 -0.211328 -0.048669 0.010437 -0.211185 -0.088637 -0.068571 -0.125379 0.008948 0.146954 -0.116649 0.038895 -0.190072 -0.154573 -0.055100 -0.039257 0.032549 0.118867 -0.126396 -0.114528 0.127686 -0.015691 -0.016375 0.113107 0.230643 -0.061964 0.060486 0.039620 -0.031959 -0.184382 0.003995 -0.153236 0.187716 -0.218565 0.102521 -0.053607 0.204794 -0.155318 0.127596 0.172145 0.083039 -0.005066 0.209278 0.020571 0.048208 0.173002 -0.125790 -0.011818 0.116616 0.075099 0.253689 -0.168773 -0.000125 0.172413 0.060605 -0.078674 0.228225 0.195227 0.103953 0.061499 -0.118653 0.046681 0.128026 0.102654 -0.150782 -0.196724 -0.070118 -0.162440 -0.057865 0.029096 0.053971 -0.084861 -0.083314 -0.065205 -0.004343 0.036262 -0.034346 0.067723 -0.096520 0.136687 0.125046 0.152062 -0.034678 -0.003616 -0.151620 0.264400 -0.092838 0.124086 -0.067950 0.091644 -0.000032 -0.005967 -0.003152 -0.029268 -0.149391 0.069973 -0.166127 -0.110006 0.129248 -0.008798 -0.050129 -0.080362 0.029058 0.028468 0.037121 0.188462 -0.038911
3 -0.132669 -0.032674 -0.195552 0.180822 -0.045803 -0.003849 0.156636 0.041362 0.006059 -0.092081 -0.068173 -0.098187 -0.097177 0.086703 -0.043971 -0.184947 0.162622 -0.135875 -0.019719 0.093161 0.013081 0.125684 -0.174011 -0.029509 0.073158 -0.176187 -0.014711 -0.055402 -0.093142 -0.026700 0.173898 -0.080354 0.060815 -0.076630 -0.107474 -0.019873 -0.046147 0.021052 0.076728 -0.110238 -0.075349 0.091993 -0.018701 -0.016986 0.064478 0.188748 -0.063505 0.080086 0.024176 0.009684 -0.155966 -0.034979 -0.050437 0.103476 -0.180865 0.127940 -0.041342 0.212343 -0.083818 0.032686 0.221316 0.104978 0.002283 0.152812 -0.011889 0.069187 0.140629 -0.098627 -0.034287 -0.026419 0.023643 0.279921 -0.172977 0.019137 0.076251 0.012119 -0.039542 0.169628 0.145480 0.177829 0.057192 -0.061859 0.081764 0.082623 0.095410 -0.186176 -0.207862 0.009461 -0.100145 -0.000259 0.061212 -0.002748 -0.088425 -0.049321 -0.107564 -0.024580 0.019029 -0.054269 0.061687 -0.071639 0.168504 0.126164 0.118977 -0.148121 -0.049686 -0.090006 0.177865 -0.072566 0.051125 -0.063619 0.049848 -0.002160 0.051341 0.009179 0.001953 -0.066241 0.106771 -0.224075 -0.152138 0.107104 -0.006780 -0.016779 -0.060615 0.052258 -0.018334 0.054361 0.172956 -0.071989
2 -0.093508 -0.005168 -0.206439 0.191689 -0.000020 0.001044 0.158936 0.037232 0.018876 -0.084178 -0.042942 -0.085538 -0.085052 0.087209 -0.041994 -0.186194 0.151549 -0.157057 -0.051557 0.106087 0.058253 0.157055 -0.138479 -0.018891 0.118668 -0.151360 0.047004 -0.047935 -0.059650 -0.044223 0.199278 -0.052887 0.074623 0.013983 -0.068858 0.010110 -0.041612 0.013256 0.053755 -0.102370 -0.037077 0.061238 -0.021620 -0.026288 0.028690 0.152287 -0.059520 0.094346 0.012319 0.037753 -0.140347 -0.071188 0.023233 0.032752 -0.150348 0.149371 -0.039107 0.219721 -0.029841 -0.047274 0.257592 0.118707 -0.002287 0.099158 -0.030521 0.094732 0.123225 -0.078198 -0.044629 -0.140384 -0.005214 0.309262 -0.169970 0.035463 0.002868 -0.027099 -0.020187 0.132712 0.114805 0.235015 0.051391 -0.022576 0.099860 0.061140 0.092863 -0.226049 -0.231084 0.077341 -0.054920 0.050926 0.093444 -0.048530 -0.088574 -0.038207 -0.151078 -0.045948 -0.007494 -0.077291 0.057922 -0.051515 0.192187 0.118011 0.092223 -0.238886 -0.086465 -0.047942 0.114586 -0.058533 -0.000440 -0.066074 0.020194 -0.008268 0.082845 0.020685 0.032005 0.009768 0.149566 -0.268497 -0.191852 0.096842 -0.012316 0.019008 -0.030917 0.072068 -0.055553 0.067200 0.166976 -0.099677
4 -0.116728 -0.026582 -0.194822 0.177068 -0.029205 -0.001761 0.146587 0.041593 0.009491 -0.083662 -0.052155 -0.085110 -0.088831 0.084138 -0.040744 -0.180317 0.153454 -0.135009 -0.027443 0.088543 0.020060 0.125450 -0.154986 -0.033748 0.086504 -0.156869 0.006282 -0.050615 -0.079257 -0.030621 0.171349 -0.065215 0.059444 -0.039598 -0.092678 -0.010044 -0.047034 0.019372 0.069928 -0.102878 -0.054361 0.083847 -0.017476 -0.024798 0.050956 0.173024 -0.057431 0.079118 0.014770 0.021688 -0.151758 -0.039977 -0.029268 0.076767 -0.165571 0.132648 -0.039371 0.209005 -0.059365 0.004142 0.219125 0.104009 -0.002086 0.129869 -0.018015 0.076114 0.131965 -0.091188 -0.029867 -0.059561 0.012587 0.283347 -0.169101 0.022802 0.051118 -0.006704 -0.034007 0.152816 0.134509 0.192619 0.052085 -0.042509 0.088922 0.073871 0.093298 -0.194927 -0.214573 0.029570 -0.088373 0.013340 0.069323 -0.011941 -0.083101 -0.048294 -0.118387 -0.030460 0.007573 -0.055184 0.060864 -0.063403 0.165771 0.119711 0.099534 -0.168744 -0.061979 -0.071087 0.158614 -0.067061 0.039709 -0.060985 0.036712 -0.000605 0.059591 0.017332 0.013960 -0.044603 0.115582 -0.235338 -0.155556 0.106979 -0.003820 0.000111 -0.046406 0.060616 -0.033755 0.058083 0.172692 -0.080092
32 -0.151023 -0.051953 -0.192548 0.174507 -0.063403 0.000588 0.146197 0.035639 0.006119 -0.094608 -0.071476 -0.094675 -0.094236 0.082323 -0.042543 -0.180225 0.165865 -0.120121 0.004558 0.082799 -0.013034 0.093120 -0.180093 -0.041425 0.047436 -0.183155 -0.042137 -0.057189 -0.106762 -0.006354 0.162346 -0.093373 0.054096 -0.113980 -0.122629 -0.033146 -0.042941 0.029331 0.092561 -0.106605 -0.083908 0.101876 -0.015075 -0.019362 0.080750 0.196030 -0.059065 0.075648 0.033283 -0.003080 -0.164217 -0.020893 -0.084901 0.137169 -0.191705 0.119977 -0.044011 0.203861 -0.109409 0.070253 0.202801 0.090499 -0.002296 0.171917 -0.003789 0.061513 0.156557 -0.109568 -0.022394 0.026111 0.046720 0.267128 -0.172687 0.017431 0.108582 0.027653 -0.049092 0.191601 0.159197 0.146479 0.055466 -0.077333 0.070243 0.098199 0.100734 -0.171456 -0.200898 -0.018880 -0.125674 -0.017428 0.055142 0.019066 -0.086500 -0.064186 -0.092404 -0.016992 0.025828 -0.049969 0.066343 -0.082657 0.154983 0.119227 0.128666 -0.094870 -0.027861 -0.117750 0.210130 -0.083681 0.076757 -0.069247 0.064656 0.001170 0.030297 0.012748 -0.000969 -0.094773 0.096804 -0.191510 -0.137203 0.118717 -0.013016 -0.026765 -0.059286 0.041658 -0.002027 0.043933 0.172701 -0.059010
24 -0.185178 -0.086248 -0.183875 0.155262 -0.098840 -0.002931 0.147103 0.034798 -0.004616 -0.094461 -0.084853 -0.087396 -0.102121 0.073639 -0.055053 -0.172372 0.165182 -0.103992 0.035842 0.077730 -0.048780 0.057358 -0.211014 -0.055252 0.002253 -0.207310 -0.093583 -0.064872 -0.123515 0.008261 0.141117 -0.107733 0.032169 -0.190265 -0.152793 -0.059707 -0.032609 0.035646 0.118682 -0.119966 -0.109345 0.130154 -0.014609 -0.021551 0.119921 0.225820 -0.051243 0.055748 0.041815 -0.032453 -0.186643 0.000601 -0.163940 0.194675 -0.216196 0.102260 -0.052950 0.190689 -0.158502 0.130973 0.173106 0.083235 -0.006683 0.206161 0.021724 0.049978 0.176214 -0.128027 -0.012677 0.125538 0.077588 0.260781 -0.166787 -0.005262 0.181452 0.060252 -0.085933 0.229942 0.192396 0.097731 0.054482 -0.119722 0.051924 0.134214 0.101499 -0.146955 -0.205216 -0.076625 -0.169001 -0.064262 0.028553 0.054296 -0.085205 -0.087969 -0.070573 -0.008912 0.034548 -0.041956 0.076455 -0.099477 0.135231 0.122574 0.155583 -0.022170 0.000998 -0.157471 0.281215 -0.096498 0.129024 -0.072793 0.098078 0.006214 -0.003442 0.006911 -0.024345 -0.156130 0.074027 -0.155472 -0.105645 0.137705 -0.008692 -0.047221 -0.083703 0.034202 0.023831 0.039623 0.189513 -0.036946
14 -0.119762 -0.022621 -0.194950 0.179748 -0.030114 -0.000311 0.149076 0.036449 0.015599 -0.086173 -0.062423 -0.090498 -0.087474 0.086160 -0.043331 -0.181460 0.156753 -0.141305 -0.029317 0.094689 0.023498 0.133485 -0.153051 -0.029689 0.087469 -0.162977 0.006037 -0.050201 -0.082583 -0.031409 0.175740 -0.064062 0.061758 -0.046416 -0.092313 -0.004555 -0.050148 0.019609 0.067456 -0.099217 -0.058463 0.083564 -0.018299 -0.020773 0.049547 0.173770 -0.061314 0.083459 0.020624 0.024258 -0.146486 -0.043623 -0.025205 0.080067 -0.162840 0.130484 -0.041160 0.205221 -0.062346 0.000493 0.229056 0.106735 0.002467 0.135693 -0.018274 0.076883 0.132087 -0.091945 -0.041796 -0.059868 0.016656 0.286078 -0.167367 0.032067 0.047033 -0.002534 -0.025157 0.154235 0.132073 0.188856 0.053269 -0.043292 0.084300 0.075661 0.092412 -0.192467 -0.215713 0.035935 -0.083568 0.015317 0.069106 -0.015699 -0.086090 -0.042624 -0.123772 -0.031840 0.011154 -0.056243 0.056749 -0.062610 0.163756 0.117808 0.106698 -0.171619 -0.059772 -0.072361 0.153738 -0.067739 0.030331 -0.061568 0.038579 -0.001668 0.061540 0.017469 0.007916 -0.040105 0.121380 -0.234451 -0.164346 0.104475 -0.006897 -0.004522 -0.047894 0.054093 -0.031325 0.052807 0.166576 -0.078195
28 -0.158727 -0.058729 -0.190569 0.166004 -0.061871 -0.006837 0.153085 0.037769 -0.001821 -0.093928 -0.073241 -0.093385 -0.100710 0.080745 -0.049243 -0.178259 0.163834 -0.122506 0.004216 0.087159 -0.013361 0.090118 -0.186670 -0.045308 0.038546 -0.189742 -0.052528 -0.059632 -0.104555 -0.010002 0.163635 -0.096503 0.044526 -0.129481 -0.125546 -0.038630 -0.040208 0.027396 0.093693 -0.116512 -0.088498 0.105707 -0.017483 -0.020147 0.083179 0.205289 -0.061912 0.069124 0.027388 -0.010710 -0.165448 -0.021286 -0.102319 0.144236 -0.197203 0.119081 -0.046573 0.202252 -0.120634 0.078984 0.194901 0.087102 -0.002604 0.177490 0.000318 0.063870 0.161945 -0.114629 -0.021225 0.046125 0.045052 0.268223 -0.171021 0.008773 0.125450 0.031825 -0.055821 0.196407 0.172045 0.138370 0.059772 -0.084184 0.066581 0.109684 0.099572 -0.173021 -0.209740 -0.023652 -0.130922 -0.029813 0.052368 0.022423 -0.084768 -0.069638 -0.094483 -0.021729 0.025905 -0.050072 0.069500 -0.081858 0.151638 0.126622 0.132831 -0.086016 -0.026517 -0.120911 0.222281 -0.085908 0.091099 -0.070135 0.068133 -0.000055 0.020646 0.008783 -0.008394 -0.104794 0.090970 -0.190739 -0.138673 0.120759 -0.011513 -0.028737 -0.071775 0.040623 0.005576 0.043588 0.177724 -0.052778
30 -0.174732 -0.075573 -0.169886 0.152450 -0.086070 -0.008158 0.135990 0.028592 -0.007690 -0.095456 -0.085966 -0.092444 -0.094096 0.078581 -0.053840 -0.159627 0.164836 -0.103596 0.024375 0.076547 -0.037588 0.060628 -0.197215 -0.043586 0.005791 -0.197003 -0.088254 -0.056440 -0.120289 0.007131 0.137284 -0.107764 0.041138 -0.177714 -0.144967 -0.052364 -0.039820 0.025459 0.113638 -0.114248 -0.107187 0.121733 -0.015066 -0.017508 0.106480 0.218394 -0.052705 0.057562 0.039957 -0.034768 -0.175292 0.003222 -0.147367 0.181098 -0.203313 0.096890 -0.051011 0.191778 -0.148111 0.121180 0.162861 0.079392 -0.002787 0.201501 0.019831 0.051255 0.165538 -0.119691 -0.017085 0.109754 0.069469 0.239897 -0.160212 -0.002171 0.163272 0.058172 -0.070056 0.215680 0.182556 0.094048 0.057342 -0.110184 0.044867 0.120901 0.101116 -0.140018 -0.183237 -0.072249 -0.154164 -0.058409 0.031272 0.050637 -0.080572 -0.076872 -0.066988 -0.005440 0.035293 -0.033836 0.064856 -0.087494 0.132468 0.112077 0.147683 -0.024246 -0.005004 -0.144753 0.251120 -0.085378 0.115942 -0.065946 0.089864 -0.003109 -0.002778 0.002461 -0.021055 -0.145164 0.063217 -0.158556 -0.105801 0.124120 -0.010219 -0.043057 -0.083590 0.029007 0.021121 0.037472 0.173356 -0.038999
8 -0.090319 0.005000 -0.211047 0.194221 -0.000512 0.004848 0.158068 0.040361 0.019450 -0.088087 -0.050576 -0.096436 -0.094783 0.093548 -0.035202 -0.196103 0.162592 -0.161752 -0.063307 0.105036 0.056937 0.177606 -0.140578 -0.022398 0.130333 -0.154934 0.052068 -0.040819 -0.062739 -0.051672 0.204120 -0.053031 0.079209 0.018213 -0.073836 0.011116 -0.060198 0.016552 0.053113 -0.104358 -0.045136 0.070472 -0.025341 -0.019366 0.020104 0.161386 -0.064240 0.100057 0.018222 0.047178 -0.142087 -0.060951 0.028451 0.033446 -0.152389 0.152388 -0.040250 0.225925 -0.023854 -0.056525 0.265070 0.121804 0.002433 0.110968 -0.031117 0.097707 0.120679 -0.081463 -0.049945 -0.150717 -0.012737 0.307529 -0.171151 0.045771 -0.006488 -0.034050 -0.002336 0.119759 0.113592 0.237266 0.063511 -0.017288 0.102992 0.056335 0.092143 -0.228976 -0.232666 0.084096 -0.050517 0.047339 0.092923 -0.044303 -0.088705 -0.031832 -0.150925 -0.039766 -0.004719 -0.068750 0.055230 -0.050472 0.197193 0.127125 0.094523 -0.245680 -0.094262 -0.046096 0.114813 -0.053428 -0.006163 -0.066017 0.016190 -0.012615 0.090872 0.021258 0.023269 0.006527 0.149258 -0.281129 -0.193594 0.089251 -0.004913 0.013576 -0.033546 0.068296 -0.057742 0.066761 0.166523 -0.098708
9 -0.144790 -0.046353 -0.187108 0.169925 -0.053874 -0.000272 0.147769 0.036512 0.005120 -0.096291 -0.070938 -0.092176 -0.091667 0.078624 -0.046837 -0.175306 0.159006 -0.121432 -0.002219 0.085941 -0.007944 0.100707 -0.176228 -0.037987 0.051974 -0.181101 -0.032553 -0.054871 -0.099182 -0.017460 0.156336 -0.085348 0.053143 -0.106278 -0.120417 -0.025649 -0.040008 0.020939 0.093015 -0.111634 -0.081635 0.101012 -0.018525 -0.020568 0.074911 0.196967 -0.058735 0.068192 0.025136 -0.005623 -0.161334 -0.026263 -0.082403 0.127762 -0.184556 0.121773 -0.045899 0.202859 -0.102318 0.055011 0.202068 0.094243 -0.001954 0.163881 0.001546 0.065621 0.154685 -0.105440 -0.024612 0.018558 0.038330 0.274789 -0.167240 0.015034 0.104679 0.025902 -0.055952 0.183187 0.161721 0.154379 0.053942 -0.080003 0.073353 0.097075 0.096991 -0.174934 -0.213031 -0.016628 -0.119753 -0.017398 0.050063 0.013415 -0.081285 -0.060710 -0.097555 -0.017700 0.020968 -0.045421 0.063446 -0.076667 0.159604 0.119012 0.128234 -0.114161 -0.035014 -0.103125 0.199948 -0.080358 0.072810 -0.068516 0.063848 0.000061 0.029402 0.010418 -0.004650 -0.089674 0.099364 -0.203460 -0.137200 0.118871 -0.005507 -0.021109 -0.064873 0.046067 -0.005849 0.044514 0.174491 -0.064076
6 -0.059884 0.059655 -0.220752 0.225943 0.038482 0.017359 0.157944 0.039749 0.035276 -0.100830 -0.061322 -0.117887 -0.102795 0.113647 -0.023912 -0.217086 0.174347 -0.200406 -0.115224 0.123791 0.088181 0.245088 -0.113180 -0.000561 0.193930 -0.142894 0.130557 -0.032909 -0.034697 -0.092535 0.225856 -0.031067 0.115287 0.094687 -0.045285 0.055652 -0.095971 0.007184 0.024829 -0.096188 -0.033188 0.048458 -0.027044 0.001523 -0.026230 0.161417 -0.086057 0.134914 0.023349 0.096427 -0.131512 -0.065274 0.123548 -0.025800 -0.154605 0.179498 -0.034696 0.258380 0.041741 -0.137074 0.331721 0.150945 0.019385 0.082300 -0.063021 0.134679 0.092798 -0.069486 -0.086207 -0.276639 -0.065633 0.335466 -0.184959 0.078088 -0.098887 -0.075920 0.051880 0.074546 0.093111 0.314610 0.075829 0.030324 0.133440 0.007821 0.098546 -0.268614 -0.244074 0.159948 0.000071 0.100417 0.116053 -0.082870 -0.100751 0.011617 -0.192029 -0.033593 -0.011788 -0.073200 0.035944 -0.017275 0.238993 0.125231 0.063544 -0.343481 -0.137335 0.000524 0.026466 -0.028671 -0.089205 -0.052889 -0.036688 -0.024153 0.134167 0.021798 0.033621 0.065706 0.180943 -0.352207 -0.239190 0.067353 0.008161 0.030488 -0.025892 0.079587 -0.093744 0.066046 0.163457 -0.134972
7 -0.049690 0.080783 -0.247769 0.252829 0.063991 0.022635 0.168079 0.041486 0.041869 -0.112925 -0.065168 -0.134226 -0.109797 0.130075 -0.022585 -0.241111 0.185175 -0.227136 -0.140585 0.137951 0.119410 0.286503 -0.117836 0.009782 0.229489 -0.145361 0.169512 -0.032093 -0.031716 -0.112928 0.255950 -0.020251 0.131421 0.137973 -0.043849 0.069608 -0.113485 -0.001243 0.018519 -0.104061 -0.028876 0.046456 -0.032930 0.003975 -0.045230 0.175113 -0.098076 0.158761 0.023340 0.115087 -0.138213 -0.081629 0.167014 -0.057180 -0.155661 0.205045 -0.031280 0.291295 0.072537 -0.175349 0.375452 0.169661 0.024819 0.073576 -0.073015 0.156260 0.092941 -0.072212 -0.102327 -0.347499 -0.088265 0.365939 -0.200905 0.091593 -0.143567 -0.095358 0.072670 0.061650 0.084369 0.369684 0.077137 0.043992 0.148589 -0.006565 0.096047 -0.296221 -0.261094 0.193027 0.014227 0.122849 0.129833 -0.100308 -0.102686 0.021558 -0.221496 -0.037845 -0.021996 -0.078536 0.031469 -0.007658 0.269224 0.137201 0.054800 -0.412095 -0.159280 0.026419 -0.003437 -0.021880 -0.119326 -0.049639 -0.052120 -0.033673 0.159539 0.027623 0.050707 0.099307 0.205878 -0.402695 -0.268149 0.063927 0.009303 0.042746 -0.023880 0.091515 -0.116015 0.067249 0.166383 -0.156079
20 -0.112580 -0.016825 -0.203590 0.185713 -0.020208 0.000687 0.152724 0.041428 0.013932 -0.089362 -0.060580 -0.092132 -0.094952 0.085471 -0.040801 -0.186560 0.156450 -0.147489 -0.033484 0.100212 0.030432 0.141248 -0.152913 -0.026335 0.094905 -0.159665 0.018595 -0.050762 -0.078821 -0.036009 0.180551 -0.065238 0.068029 -0.029547 -0.089581 -0.003385 -0.051322 0.018236 0.063409 -0.105949 -0.057884 0.076607 -0.020168 -0.017508 0.044361 0.171179 -0.066909 0.089982 0.019966 0.023349 -0.149191 -0.047355 -0.014346 0.066280 -0.162953 0.139968 -0.037985 0.213055 -0.056616 -0.008268 0.234470 0.110275 0.000084 0.124073 -0.018125 0.080547 0.132806 -0.089451 -0.040953 -0.083711 0.006552 0.286021 -0.170752 0.034160 0.032533 -0.010820 -0.024077 0.143836 0.128321 0.204273 0.055081 -0.040888 0.091081 0.070468 0.096024 -0.204382 -0.215220 0.047860 -0.076214 0.026041 0.077320 -0.018429 -0.088334 -0.041377 -0.129123 -0.034849 0.008200 -0.060442 0.057134 -0.056739 0.179099 0.117766 0.106374 -0.187828 -0.068858 -0.070923 0.142081 -0.063078 0.024707 -0.065764 0.032437 -0.009021 0.062324 0.016465 0.016461 -0.028427 0.124706 -0.245472 -0.167690 0.099555 -0.007259 0.000676 -0.045111 0.063337 -0.039338 0.055247 0.165557 -0.082693
31 -0.140748 -0.044913 -0.187955 0.168080 -0.049418 0.003212 0.146709 0.032538 0.005151 -0.092835 -0.071821 -0.088571 -0.095903 0.080414 -0.050361 -0.178367 0.167632 -0.131070 -0.013011 0.085367 -0.006158 0.112409 -0.178841 -0.032988 0.057352 -0.183150 -0.026489 -0.049609 -0.090584 -0.018648 0.165143 -0.085971 0.057698 -0.103570 -0.115597 -0.023159 -0.042549 0.018972 0.086500 -0.108025 -0.086659 0.104264 -0.015603 -0.021969 0.074118 0.193571 -0.059587 0.073092 0.033140 -0.000353 -0.162671 -0.020823 -0.080016 0.123459 -0.187958 0.119619 -0.047440 0.209859 -0.091602 0.044379 0.210739 0.101359 0.001516 0.166199 0.000939 0.069400 0.144906 -0.107809 -0.025245 0.005831 0.033324 0.271464 -0.161119 0.014463 0.088299 0.015847 -0.050101 0.178788 0.153302 0.157994 0.060096 -0.076974 0.067551 0.096671 0.096406 -0.181641 -0.204677 -0.011826 -0.113238 -0.007978 0.055249 0.011739 -0.080243 -0.063322 -0.099342 -0.015209 0.016534 -0.045686 0.065983 -0.075907 0.165781 0.119071 0.123539 -0.118447 -0.038087 -0.101954 0.196005 -0.070352 0.060491 -0.063443 0.061779 -0.009266 0.032462 0.009094 -0.008968 -0.083880 0.103265 -0.212562 -0.137573 0.109741 -0.005286 -0.019204 -0.063009 0.043306 -0.011848 0.048847 0.177749 -0.064184
25 -0.153778 -0.044296 -0.189205 0.167603 -0.061669 0.001462 0.143441 0.031419 0.004585 -0.090847 -0.071920 -0.093082 -0.099636 0.085833 -0.041193 -0.175900 0.164639 -0.124681 0.003329 0.087816 -0.012852 0.095681 -0.176407 -0.040268 0.051581 -0.185688 -0.041430 -0.050762 -0.104669 -0.010072 0.157106 -0.084516 0.050529 -0.113293 -0.119216 -0.027921 -0.044842 0.023884 0.088026 -0.103730 -0.080245 0.108660 -0.022057 -0.016998 0.080019 0.196401 -0.056952 0.070893 0.032309 0.001152 -0.166914 -0.018350 -0.085980 0.134835 -0.190854 0.117888 -0.047586 0.199273 -0.105695 0.065912 0.206709 0.095305 -0.004458 0.167904 -0.003451 0.063864 0.152470 -0.103591 -0.027037 0.024035 0.037494 0.265631 -0.165454 0.019682 0.106991 0.029905 -0.048255 0.184320 0.159161 0.146063 0.059843 -0.073921 0.068210 0.100248 0.098203 -0.164484 -0.199630 -0.018729 -0.116194 -0.021385 0.046084 0.018060 -0.086056 -0.055822 -0.098213 -0.020034 0.020230 -0.048026 0.061788 -0.078220 0.147355 0.116942 0.129227 -0.099715 -0.037756 -0.113320 0.207376 -0.075332 0.079104 -0.068397 0.062168 -0.000091 0.032311 0.013222 -0.007057 -0.097213 0.099777 -0.193907 -0.139097 0.113981 -0.006781 -0.023464 -0.064942 0.044716 0.000482 0.047944 0.173263 -0.055569
5 -0.058760 0.056500 -0.225189 0.226065 0.047462 0.012568 0.152456 0.040980 0.035851 -0.101014 -0.057676 -0.116877 -0.095803 0.112666 -0.028961 -0.218983 0.164396 -0.194583 -0.118345 0.120383 0.091522 0.246192 -0.116057 0.005125 0.194080 -0.137534 0.133099 -0.031768 -0.034146 -0.095299 0.228380 -0.028683 0.109832 0.108633 -0.048929 0.053164 -0.089811 0.001525 0.028245 -0.103310 -0.023391 0.050000 -0.027177 -0.000063 -0.023936 0.167138 -0.084131 0.134736 0.017944 0.093819 -0.132583 -0.071446 0.127714 -0.032912 -0.151363 0.183005 -0.031264 0.261022 0.049343 -0.142246 0.335311 0.156601 0.019818 0.079631 -0.062924 0.131057 0.093167 -0.065465 -0.085909 -0.286363 -0.063678 0.339318 -0.183161 0.079113 -0.105684 -0.073483 0.050749 0.075608 0.093113 0.321246 0.070686 0.027400 0.132791 0.005015 0.092877 -0.267088 -0.241783 0.162980 0.003709 0.103942 0.115266 -0.087942 -0.093875 0.016242 -0.195748 -0.039952 -0.012941 -0.064134 0.030011 -0.016829 0.236488 0.120650 0.062065 -0.348921 -0.132842 0.008967 0.014377 -0.022163 -0.087487 -0.049500 -0.038095 -0.029894 0.133453 0.025958 0.038703 0.072643 0.176805 -0.350528 -0.234837 0.059837 0.011127 0.036275 -0.023864 0.086794 -0.101463 0.057894 0.152858 -0.131857
26 -0.158199 -0.062585 -0.186038 0.159361 -0.073205 -0.005955 0.146378 0.030084 0.001502 -0.094990 -0.075692 -0.092127 -0.098580 0.080067 -0.045897 -0.169427 0.159549 -0.114205 0.013962 0.082067 -0.021860 0.081773 -0.184584 -0.048310 0.029961 -0.184656 -0.062604 -0.052230 -0.113814 -0.004270 0.144798 -0.090586 0.041144 -0.143238 -0.133399 -0.042097 -0.043595 0.025875 0.093081 -0.107159 -0.091319 0.110810 -0.020639 -0.014793 0.090158 0.205399 -0.060146 0.067839 0.038635 -0.012799 -0.168147 -0.010081 -0.113304 0.158985 -0.201603 0.110441 -0.051629 0.191583 -0.127564 0.093674 0.190708 0.087426 -0.004544 0.177371 0.003421 0.052235 0.154199 -0.112110 -0.020136 0.067630 0.050533 0.254784 -0.164790 0.007810 0.131112 0.040537 -0.055706 0.197837 0.167557 0.125211 0.059510 -0.086534 0.054849 0.107032 0.098590 -0.147953 -0.196641 -0.044472 -0.134877 -0.039367 0.040589 0.037263 -0.078999 -0.068057 -0.076564 -0.014366 0.030432 -0.039653 0.064519 -0.082752 0.139694 0.123626 0.139557 -0.069149 -0.020527 -0.128267 0.233855 -0.086944 0.094930 -0.068873 0.077137 0.001494 0.022324 0.007951 -0.009815 -0.118341 0.084336 -0.181882 -0.122592 0.119684 -0.010536 -0.037163 -0.073640 0.040255 0.007960 0.043386 0.175414 -0.047435
11 -0.052821 0.064962 -0.222026 0.221073 0.050684 0.020193 0.154792 0.035632 0.034705 -0.097889 -0.056047 -0.110028 -0.100008 0.110095 -0.019508 -0.218215 0.170574 -0.200854 -0.120303 0.117389 0.099810 0.245668 -0.107917 0.001615 0.199590 -0.136171 0.139709 -0.028135 -0.028615 -0.097623 0.225057 -0.025133 0.118233 0.110718 -0.043495 0.057916 -0.095900 0.006015 0.022290 -0.097465 -0.025740 0.042357 -0.023520 -0.002907 -0.032387 0.160137 -0.084919 0.138023 0.017266 0.099252 -0.126461 -0.073272 0.134811 -0.039934 -0.144871 0.178369 -0.031651 0.261785 0.049758 -0.146193 0.334319 0.155650 0.022758 0.070017 -0.060364 0.133273 0.089542 -0.064468 -0.083184 -0.291167 -0.069404 0.332833 -0.181326 0.076053 -0.112157 -0.079686 0.051353 0.065999 0.081716 0.320523 0.070771 0.036028 0.131739 0.000200 0.091145 -0.267792 -0.235521 0.167205 0.007202 0.107430 0.118602 -0.083604 -0.096280 0.011906 -0.195614 -0.039634 -0.020133 -0.067774 0.031779 -0.011353 0.234996 0.117990 0.054893 -0.355276 -0.140870 0.011990 0.012508 -0.020014 -0.099448 -0.045459 -0.042709 -0.029450 0.136664 0.022264 0.041282 0.075323 0.183821 -0.354936 -0.238776 0.060499 0.004193 0.032667 -0.022791 0.085689 -0.104519 0.066043 0.154534 -0.135627
29 -0.167333 -0.071009 -0.184561 0.160592 -0.076568 -0.004057 0.147484 0.032735 -0.000860 -0.092462 -0.077336 -0.089307 -0.091497 0.073280 -0.054340 -0.169209 0.159730 -0.111074 0.018874 0.078924 -0.024868 0.071012 -0.194248 -0.043679 0.021895 -0.189908 -0.072092 -0.055985 -0.115274 -0.001354 0.150614 -0.097943 0.041715 -0.147815 -0.135390 -0.045850 -0.033498 0.028687 0.102291 -0.112480 -0.092029 0.116086 -0.019495 -0.024235 0.100721 0.209487 -0.055359 0.064774 0.032292 -0.024062 -0.173632 -0.015270 -0.121071 0.161463 -0.193568 0.108200 -0.048623 0.195877 -0.132889 0.099892 0.183029 0.086284 -0.006401 0.187255 0.007901 0.051522 0.163843 -0.114173 -0.017227 0.071653 0.058936 0.261347 -0.165188 0.001717 0.143672 0.042583 -0.073187 0.208229 0.170891 0.118836 0.051313 -0.092477 0.055178 0.113925 0.098379 -0.152788 -0.199075 -0.051119 -0.142351 -0.041518 0.035306 0.036924 -0.082893 -0.074762 -0.079233 -0.019579 0.028329 -0.044383 0.065184 -0.085602 0.139089 0.123970 0.144557 -0.060788 -0.016841 -0.131942 0.244185 -0.089708 0.107623 -0.073575 0.082908 -0.001262 0.014908 0.003167 -0.013723 -0.122077 0.083333 -0.173888 -0.122385 0.124398 -0.007746 -0.031031 -0.073113 0.041881 0.010941 0.044001 0.175376 -0.047649
21 -0.167895 -0.063099 -0.197473 0.175648 -0.074556 -0.005269 0.156800 0.035532 0.004114 -0.102183 -0.080237 -0.095292 -0.100036 0.088303 -0.047560 -0.184220 0.174167 -0.122792 0.011963 0.083429 -0.020745 0.092069 -0.199240 -0.041562 0.038200 -0.192818 -0.060433 -0.063179 -0.114334 -0.006844 0.164825 -0.097732 0.045232 -0.139989 -0.134262 -0.040364 -0.041641 0.024266 0.101047 -0.118144 -0.095243 0.111380 -0.021389 -0.015472 0.091824 0.214728 -0.059122 0.071325 0.030300 -0.012040 -0.173553 -0.016326 -0.113035 0.156017 -0.202719 0.116887 -0.045048 0.207079 -0.121396 0.087944 0.194054 0.091263 -0.000296 0.186323 0.003636 0.059437 0.164670 -0.114796 -0.020700 0.055595 0.052176 0.265827 -0.175014 0.012094 0.128524 0.038906 -0.063762 0.199966 0.175976 0.136190 0.059975 -0.089199 0.061791 0.106695 0.102339 -0.164686 -0.205262 -0.037594 -0.138102 -0.031580 0.046681 0.032142 -0.084615 -0.072025 -0.085833 -0.020722 0.029834 -0.044980 0.069700 -0.086398 0.157116 0.129769 0.140668 -0.088504 -0.023145 -0.126094 0.229307 -0.088302 0.091114 -0.072649 0.073537 0.002484 0.018380 0.006782 -0.013222 -0.116055 0.086856 -0.195892 -0.130354 0.128272 -0.011055 -0.032532 -0.068526 0.043597 0.008828 0.046085 0.178878 -0.056587
27 -0.178407 -0.073948 -0.184715 0.164419 -0.088275 -0.008424 0.152595 0.037998 -0.005062 -0.101618 -0.087950 -0.091823 -0.097833 0.076262 -0.051883 -0.169819 0.166924 -0.107928 0.025527 0.082651 -0.038589 0.070226 -0.208918 -0.043504 0.010568 -0.203476 -0.082906 -0.066103 -0.116025 -0.002728 0.145493 -0.106462 0.042255 -0.174676 -0.149374 -0.046043 -0.035119 0.033785 0.115760 -0.124360 -0.103483 0.120556 -0.017699 -0.016374 0.105595 0.227560 -0.062535 0.059671 0.037674 -0.032251 -0.176133 -0.003651 -0.136358 0.182022 -0.210253 0.102923 -0.054794 0.199212 -0.148467 0.115386 0.178191 0.084544 -0.004559 0.205956 0.011046 0.050509 0.175336 -0.123761 -0.019194 0.100980 0.061494 0.264667 -0.166429 -0.000644 0.162081 0.052790 -0.077065 0.221450 0.183397 0.112764 0.057798 -0.111791 0.053637 0.119922 0.105256 -0.153142 -0.203979 -0.066036 -0.154358 -0.049397 0.033813 0.045441 -0.087599 -0.084165 -0.074455 -0.011565 0.036915 -0.033522 0.066159 -0.086575 0.145591 0.123169 0.152850 -0.046165 -0.012562 -0.142196 0.256868 -0.092952 0.115501 -0.071347 0.085865 -0.003025 0.008563 0.000112 -0.018308 -0.139712 0.073591 -0.174817 -0.112917 0.131958 -0.002875 -0.036207 -0.084657 0.040361 0.021528 0.036203 0.179445 -0.042099
10 -0.167168 -0.060638 -0.194148 0.167163 -0.071841 0.001144 0.156620 0.039519 -0.002128 -0.095967 -0.081344 -0.094797 -0.102174 0.084564 -0.049392 -0.183773 0.173770 -0.118451 0.014116 0.087980 -0.021926 0.090840 -0.197667 -0.047587 0.032592 -0.200567 -0.063778 -0.061586 -0.116962 -0.005861 0.158224 -0.103090 0.046491 -0.150356 -0.134982 -0.043128 -0.037979 0.031284 0.106829 -0.120622 -0.096879 0.117759 -0.022736 -0.020605 0.098214 0.214299 -0.059314 0.069322 0.031533 -0.015897 -0.175521 -0.015452 -0.120573 0.161649 -0.204923 0.111532 -0.050671 0.205418 -0.127569 0.093392 0.192056 0.090261 -0.003887 0.185702 0.004900 0.062773 0.163940 -0.113649 -0.022213 0.065784 0.055725 0.267892 -0.171042 0.004845 0.136088 0.041539 -0.066599 0.202550 0.175154 0.130755 0.058053 -0.092591 0.059358 0.115502 0.100300 -0.161915 -0.205811 -0.044459 -0.140944 -0.034634 0.041688 0.035754 -0.086049 -0.076301 -0.086407 -0.017870 0.023312 -0.045761 0.068456 -0.089173 0.149553 0.122952 0.144723 -0.073810 -0.026843 -0.129021 0.240928 -0.090902 0.101038 -0.072600 0.075685 -0.004656 0.015670 0.003696 -0.012860 -0.116136 0.090515 -0.187760 -0.126505 0.127798 -0.006441 -0.033416 -0.075062 0.044501 0.012201 0.045588 0.180572 -0.053273
15 -0.144988 -0.049171 -0.174451 0.163248 -0.055187 -0.003061 0.144160 0.034463 0.005412 -0.087002 -0.074239 -0.086751 -0.090228 0.080406 -0.047241 -0.168968 0.152570 -0.116154 0.002045 0.082839 -0.014176 0.093197 -0.174845 -0.033047 0.039431 -0.175692 -0.039033 -0.052232 -0.099611 -0.014364 0.155177 -0.086347 0.050362 -0.109674 -0.118391 -0.026908 -0.040887 0.023790 0.085767 -0.110403 -0.085906 0.104047 -0.017488 -0.013800 0.073421 0.196676 -0.054497 0.066674 0.031114 -0.008348 -0.156298 -0.014926 -0.083850 0.127346 -0.182673 0.111564 -0.045833 0.194616 -0.103410 0.065021 0.194557 0.090758 -0.005041 0.160917 -0.002377 0.064362 0.148279 -0.103657 -0.024569 0.027586 0.038407 0.256886 -0.162741 0.008773 0.104297 0.025583 -0.047064 0.180208 0.157078 0.140940 0.051692 -0.075770 0.060302 0.092718 0.094421 -0.158307 -0.190252 -0.019869 -0.115830 -0.022409 0.044403 0.022006 -0.082770 -0.062472 -0.088601 -0.018601 0.023970 -0.040600 0.060708 -0.070313 0.148236 0.117887 0.124240 -0.093736 -0.030516 -0.107203 0.199622 -0.078431 0.071576 -0.066920 0.062497 -0.002973 0.029395 0.009588 -0.010675 -0.093640 0.086078 -0.190630 -0.131079 0.111164 -0.006597 -0.026441 -0.061854 0.044086 0.002330 0.038089 0.166618 -0.053403
23 -0.151906 -0.048660 -0.192069 0.170526 -0.059345 0.003264 0.151107 0.035380 0.006895 -0.090403 -0.076573 -0.096425 -0.101540 0.079946 -0.049904 -0.180929 0.164769 -0.127117 -0.003902 0.088069 -0.009756 0.102932 -0.185044 -0.035697 0.049050 -0.188588 -0.034513 -0.056598 -0.101392 -0.018072 0.161911 -0.085323 0.050870 -0.111550 -0.122445 -0.030610 -0.048368 0.023838 0.093337 -0.111508 -0.087936 0.108989 -0.019508 -0.021042 0.080483 0.199336 -0.059374 0.071727 0.032927 -0.004436 -0.162432 -0.020613 -0.088103 0.128734 -0.187001 0.122859 -0.045729 0.204392 -0.104331 0.056059 0.208428 0.101060 -0.001251 0.171861 -0.001665 0.062479 0.152803 -0.110601 -0.024134 0.017848 0.034286 0.271781 -0.165844 0.015897 0.101587 0.022369 -0.054229 0.187455 0.156765 0.155298 0.056210 -0.078722 0.069504 0.100170 0.100677 -0.180381 -0.205754 -0.018387 -0.122728 -0.018958 0.049459 0.013787 -0.086994 -0.066641 -0.095134 -0.021449 0.023958 -0.046237 0.067653 -0.078571 0.157391 0.118778 0.132628 -0.108139 -0.039053 -0.107366 0.211610 -0.074081 0.075528 -0.064498 0.065330 -0.005968 0.036224 0.004476 -0.011130 -0.094150 0.094650 -0.210538 -0.138117 0.112927 -0.004756 -0.026651 -0.070141 0.042788 -0.008136 0.046905 0.176399 -0.057338
13 -0.115932 -0.017582 -0.195214 0.185187 -0.022139 0.002233 0.152352 0.039043 0.014645 -0.089364 -0.065664 -0.092623 -0.090809 0.091224 -0.041537 -0.181590 0.155788 -0.146562 -0.033780 0.094218 0.030921 0.143801 -0.152863 -0.022693 0.096798 -0.166358 0.014514 -0.045987 -0.080967 -0.035458 0.184030 -0.067992 0.071522 -0.034213 -0.090098 -0.004467 -0.051295 0.017352 0.062695 -0.109480 -0.059704 0.083113 -0.018782 -0.016350 0.041207 0.183506 -0.062651 0.086860 0.019306 0.022992 -0.148976 -0.044926 -0.010161 0.073494 -0.167800 0.141415 -0.042222 0.212184 -0.053972 -0.007468 0.240192 0.107133 0.003525 0.134150 -0.024763 0.080306 0.129967 -0.088064 -0.043431 -0.080317 0.010952 0.287893 -0.166471 0.031119 0.039669 -0.008016 -0.018955 0.143261 0.133499 0.202912 0.061514 -0.038615 0.093373 0.071643 0.093258 -0.204543 -0.216517 0.045091 -0.077300 0.024597 0.075720 -0.021689 -0.083828 -0.039810 -0.130597 -0.032093 0.005693 -0.056830 0.052284 -0.057296 0.175701 0.118847 0.101029 -0.185575 -0.067825 -0.071346 0.146598 -0.060163 0.026893 -0.062029 0.029603 -0.006163 0.067141 0.016007 0.014928 -0.033504 0.123526 -0.243690 -0.172037 0.101200 -0.007784 -0.006811 -0.046598 0.061301 -0.037686 0.056716 0.163615 -0.080851
16 -0.151414 -0.046134 -0.191469 0.173322 -0.055150 -0.002957 0.146293 0.037183 0.005635 -0.091864 -0.076531 -0.090351 -0.095023 0.083283 -0.044115 -0.175810 0.161836 -0.119362 0.000937 0.083708 -0.008436 0.102025 -0.177979 -0.039424 0.044893 -0.180030 -0.035016 -0.056885 -0.098654 -0.010484 0.158510 -0.087031 0.049495 -0.111701 -0.116631 -0.029510 -0.046192 0.024863 0.087143 -0.113491 -0.081428 0.105205 -0.018165 -0.017568 0.075268 0.199668 -0.059894 0.066413 0.030813 -0.003801 -0.165613 -0.015812 -0.087545 0.129699 -0.188659 0.117399 -0.049194 0.198471 -0.103770 0.062916 0.196580 0.092145 -0.001534 0.162738 -0.000016 0.065458 0.153765 -0.106192 -0.027654 0.020892 0.038844 0.266640 -0.165932 0.016067 0.100831 0.024838 -0.049748 0.183112 0.163700 0.153147 0.060570 -0.079923 0.069203 0.092942 0.095299 -0.175924 -0.203839 -0.012012 -0.117921 -0.013340 0.052134 0.018656 -0.085527 -0.062337 -0.097929 -0.019870 0.018534 -0.044311 0.062871 -0.071793 0.151981 0.122442 0.123404 -0.107248 -0.033753 -0.104359 0.204719 -0.074987 0.075855 -0.062957 0.060063 -0.004772 0.028690 0.010488 -0.009462 -0.094061 0.098101 -0.201023 -0.135666 0.116819 -0.002485 -0.026409 -0.065111 0.044874 -0.001055 0.045609 0.175700 -0.055751
18 -0.101859 -0.013235 -0.191963 0.174672 -0.018415 0.000758 0.140516 0.032307 0.014325 -0.086257 -0.059426 -0.087432 -0.088392 0.084390 -0.036715 -0.181654 0.154397 -0.139058 -0.037970 0.090762 0.032299 0.139093 -0.145360 -0.020423 0.100135 -0.154834 0.023602 -0.046504 -0.069277 -0.037625 0.171602 -0.064221 0.068959 -0.022724 -0.083663 0.005034 -0.049202 0.017020 0.063145 -0.096768 -0.054395 0.070896 -0.017503 -0.020556 0.036796 0.162033 -0.063403 0.083231 0.016464 0.028481 -0.143938 -0.042399 -0.009946 0.057235 -0.156673 0.133649 -0.041757 0.211630 -0.043656 -0.019625 0.228888 0.104959 0.003228 0.123480 -0.019957 0.084416 0.124193 -0.081961 -0.043605 -0.090382 0.006452 0.280531 -0.161509 0.034305 0.022514 -0.016648 -0.021719 0.132826 0.125779 0.195755 0.051728 -0.034928 0.086011 0.064078 0.093571 -0.194224 -0.209470 0.048087 -0.071990 0.029661 0.071649 -0.018651 -0.084279 -0.041382 -0.128097 -0.029486 0.006410 -0.055844 0.049163 -0.055611 0.175002 0.113515 0.092648 -0.189963 -0.065497 -0.059985 0.126294 -0.058704 0.011659 -0.054169 0.026573 -0.006661 0.064878 0.015065 0.011368 -0.022056 0.117272 -0.234779 -0.160077 0.093559 -0.002615 -0.000802 -0.042142 0.054405 -0.043270 0.054470 0.153286 -0.080205
22 -0.090699 0.009117 -0.211733 0.202843 0.008620 0.007685 0.156810 0.041332 0.025519 -0.087649 -0.052110 -0.102574 -0.093688 0.097716 -0.036696 -0.198982 0.161051 -0.165432 -0.072165 0.108455 0.063838 0.185234 -0.134748 -0.017315 0.141602 -0.150485 0.063818 -0.040528 -0.063534 -0.057435 0.202388 -0.052675 0.082420 0.029474 -0.071361 0.019460 -0.063111 0.009627 0.043501 -0.099958 -0.042182 0.065780 -0.025151 -0.018199 0.017006 0.164109 -0.071416 0.101647 0.014316 0.054721 -0.142452 -0.063285 0.042173 0.024249 -0.152217 0.157404 -0.036301 0.233768 -0.014439 -0.065228 0.276820 0.127222 0.008432 0.099935 -0.036525 0.103794 0.118565 -0.082670 -0.052966 -0.165660 -0.019321 0.315248 -0.175502 0.048188 -0.021752 -0.040166 0.004076 0.115229 0.114440 0.257715 0.061201 -0.009591 0.112913 0.046207 0.098149 -0.234006 -0.235324 0.097959 -0.048649 0.056606 0.097544 -0.047762 -0.091319 -0.022331 -0.158593 -0.039234 -0.002690 -0.069454 0.053937 -0.043589 0.206143 0.123432 0.085133 -0.262942 -0.096310 -0.032142 0.095836 -0.052178 -0.018324 -0.057138 0.001603 -0.010416 0.093108 0.021550 0.029970 0.015115 0.149172 -0.297833 -0.199230 0.090090 -0.002922 0.019006 -0.032373 0.070242 -0.063454 0.067333 0.169459 -0.108138
19 -0.172324 -0.072016 -0.189459 0.168723 -0.078875 -0.003483 0.152976 0.032802 -0.003212 -0.097804 -0.087259 -0.095158 -0.098691 0.082097 -0.054137 -0.177967 0.172823 -0.115278 0.016163 0.080616 -0.034119 0.081636 -0.202623 -0.044507 0.016888 -0.200874 -0.069290 -0.061513 -0.118493 0.002427 0.154977 -0.104273 0.046873 -0.164837 -0.140492 -0.050656 -0.036964 0.027373 0.106060 -0.121098 -0.106444 0.121430 -0.016912 -0.018938 0.098029 0.221085 -0.055472 0.061083 0.033082 -0.028300 -0.179886 -0.002688 -0.135130 0.171964 -0.211119 0.112708 -0.050758 0.206514 -0.141012 0.102355 0.185206 0.084719 -0.002764 0.200664 0.010407 0.056219 0.170088 -0.118470 -0.021623 0.089343 0.061729 0.255220 -0.166577 -0.000737 0.152937 0.050301 -0.071136 0.212141 0.182339 0.113187 0.057340 -0.105540 0.050809 0.116230 0.100855 -0.154170 -0.199210 -0.058873 -0.149005 -0.047208 0.039244 0.042203 -0.079663 -0.075557 -0.080196 -0.008496 0.028039 -0.038705 0.066372 -0.090316 0.147538 0.125681 0.145802 -0.055518 -0.018745 -0.140401 0.250073 -0.091570 0.108486 -0.071504 0.087027 -0.004952 0.011592 0.002033 -0.016473 -0.133690 0.075349 -0.180673 -0.122860 0.125490 -0.003878 -0.039856 -0.078457 0.039303 0.019324 0.037855 0.185258 -0.047805
17 -0.057502 0.061864 -0.231571 0.227508 0.041608 0.020832 0.159740 0.044161 0.030621 -0.101875 -0.058178 -0.124403 -0.107239 0.119867 -0.021400 -0.227725 0.179046 -0.205444 -0.114880 0.123489 0.096249 0.253714 -0.114635 0.003565 0.201118 -0.143011 0.138194 -0.036103 -0.039902 -0.098761 0.226816 -0.030009 0.117949 0.103023 -0.048078 0.060107 -0.099561 0.002637 0.026371 -0.097735 -0.035901 0.048201 -0.030832 0.003473 -0.025936 0.169994 -0.093105 0.135965 0.025185 0.096621 -0.130759 -0.066188 0.127484 -0.029353 -0.159978 0.181186 -0.031259 0.273626 0.048346 -0.138746 0.343847 0.156678 0.024601 0.082302 -0.057458 0.139416 0.097781 -0.073137 -0.087732 -0.287658 -0.069691 0.344783 -0.183330 0.077480 -0.110033 -0.073038 0.053245 0.076619 0.095297 0.323941 0.077837 0.027484 0.136921 0.003462 0.098863 -0.272054 -0.245255 0.166114 -0.003175 0.104259 0.116041 -0.086810 -0.100670 0.012639 -0.195068 -0.030789 -0.014766 -0.065726 0.034810 -0.021296 0.244974 0.128908 0.058357 -0.355447 -0.143334 0.009134 0.023041 -0.026198 -0.095090 -0.045830 -0.040013 -0.030378 0.136475 0.021948 0.034530 0.065305 0.180443 -0.361730 -0.241075 0.064522 0.009248 0.033079 -0.023086 0.080825 -0.098511 0.061830 0.166565 -0.138771
12 -0.107201 0.003526 -0.209096 0.197895 -0.011817 0.007915 0.156780 0.039555 0.015326 -0.093254 -0.063461 -0.102129 -0.097837 0.096631 -0.036401 -0.197636 0.161311 -0.159160 -0.050135 0.101391 0.045567 0.165078 -0.147347 -0.020042 0.118605 -0.154740 0.041944 -0.050338 -0.072961 -0.045795 0.196742 -0.062408 0.080966 -0.000355 -0.079764 0.011356 -0.060212 0.016705 0.058256 -0.099846 -0.050997 0.076137 -0.024751 -0.013121 0.031495 0.170810 -0.071020 0.101764 0.016281 0.042881 -0.144174 -0.048585 0.017443 0.044549 -0.161302 0.149987 -0.038136 0.224797 -0.028308 -0.038273 0.258664 0.119098 0.002904 0.115040 -0.028775 0.096936 0.126389 -0.089739 -0.047825 -0.124688 -0.010021 0.304098 -0.178499 0.044011 0.007210 -0.021777 -0.007226 0.129592 0.128515 0.235701 0.063177 -0.028384 0.102889 0.058702 0.094866 -0.216655 -0.223555 0.073012 -0.060634 0.040091 0.082257 -0.035076 -0.086087 -0.030331 -0.140991 -0.036452 0.004685 -0.061277 0.054959 -0.054465 0.194016 0.122965 0.094000 -0.222858 -0.084416 -0.049921 0.116076 -0.056273 -0.001119 -0.062215 0.012271 -0.006186 0.078463 0.018444 0.021844 -0.010465 0.140745 -0.271321 -0.185134 0.093926 -0.005424 0.006999 -0.041808 0.069009 -0.050830 0.056075 0.168247 -0.098338
